digraph Tree {
node [shape=box, style="filled, rounded", color="black", fontname=helvetica] ;
edge [fontname=helvetica] ;
0 [label="ground_speed <= 32.5\ngini = 0.735\nsamples = 324\nvalue = [77, 108, 52, 87]\nclass = dwf", fillcolor="#47e53917"] ;
1 [label="mass <= 145.0\ngini = 0.486\nsamples = 60\nvalue = [12, 4, 41, 3]\nclass = hef", fillcolor="#399de59a"] ;
0 -> 1 [labeldistance=2.5, labelangle=45, headlabel="True"] ;
2 [label="gini = 0.473\nsamples = 13\nvalue = [9, 2, 0, 2]\nclass = brt", fillcolor="#e58139a2"] ;
1 -> 2 ;
3 [label="gini = 0.233\nsamples = 47\nvalue = [3, 2, 41, 1]\nclass = hef", fillcolor="#399de5dc"] ;
1 -> 3 ;
4 [label="leadership <= 55.5\ngini = 0.681\nsamples = 264\nvalue = [65, 104, 11, 84]\nclass = dwf", fillcolor="#47e5391c"] ;
0 -> 4 [labeldistance=2.5, labelangle=-45, headlabel="False"] ;
5 [label="gini = 0.365\nsamples = 25\nvalue = [19, 6, 0, 0]\nclass = brt", fillcolor="#e58139ae"] ;
4 -> 5 ;
6 [label="gini = 0.669\nsamples = 239\nvalue = [46, 98, 11, 84]\nclass = dwf", fillcolor="#47e53917"] ;
4 -> 6 ;
}