digraph Tree {
node [shape=box, style="rounded, filled", color="black", fontname=helvetica] ;
edge [fontname=helvetica] ;
0 [label="ground_speed <= 33.5\ngini = 0.481\nsamples = 129\nvalue = [77, 52]\nclass = brt",fillcolor = "white"] ;
1 [label="armor <= 35.0\ngini = 0.387\nsamples = 61\nvalue = [16, 45]\nclass = dwf",fillcolor = "white"] ;
0 -> 1 [labeldistance=2.5, labelangle=45, headlabel="True"] ;
2 [label="armor <= 7.5\ngini = 0.401\nsamples = 18\nvalue = [13, 5]\nclass = brt",fillcolor = "white"] ;
1 -> 2 ;
3 [label="gini = 0.0\nsamples = 5\nvalue = [0, 5]\nclass = dwf",fillcolor = "skyblue"] ;
2 -> 3 ;
4 [label="gini = 0.0\nsamples = 13\nvalue = [13, 0]\nclass = brt",fillcolor = "wheat"] ;
2 -> 4 ;
5 [label="armor <= 82.5\ngini = 0.13\nsamples = 43\nvalue = [3, 40]\nclass = dwf",fillcolor = "white"] ;
1 -> 5 ;
6 [label="melee_A <= 23.5\ngini = 0.266\nsamples = 19\nvalue = [3, 16]\nclass = dwf",fillcolor = "white"] ;
5 -> 6 ;
7 [label="gini = 0.0\nsamples = 14\nvalue = [0, 14]\nclass = dwf",fillcolor = "skyblue"] ;
6 -> 7 ;
8 [label="ground_speed <= 31.5\ngini = 0.48\nsamples = 5\nvalue = [3, 2]\nclass = brt",fillcolor = "white"] ;
6 -> 8 ;
9 [label="gini = 0.0\nsamples = 3\nvalue = [3, 0]\nclass = brt",fillcolor = "wheat"] ;
8 -> 9 ;
10 [label="gini = 0.0\nsamples = 2\nvalue = [0, 2]\nclass = dwf",fillcolor = "skyblue"] ;
8 -> 10 ;
11 [label="gini = 0.0\nsamples = 24\nvalue = [0, 24]\nclass = dwf",fillcolor = "skyblue"] ;
5 -> 11 ;
12 [label="melee_D <= 11.5\ngini = 0.185\nsamples = 68\nvalue = [61, 7]\nclass = brt",fillcolor = "white"] ;
0 -> 12 [labeldistance=2.5, labelangle=-45, headlabel="False"] ;
13 [label="gini = 0.0\nsamples = 4\nvalue = [0, 4]\nclass = dwf",fillcolor = "skyblue"] ;
12 -> 13 ;
14 [label="armor <= 7.5\ngini = 0.089\nsamples = 64\nvalue = [61, 3]\nclass = brt",fillcolor = "white"] ;
12 -> 14 ;
15 [label="ground_speed <= 62.0\ngini = 0.375\nsamples = 4\nvalue = [1, 3]\nclass = dwf",fillcolor = "white"] ;
14 -> 15 ;
16 [label="gini = 0.0\nsamples = 3\nvalue = [0, 3]\nclass = dwf",fillcolor = "skyblue"] ;
15 -> 16 ;
17 [label="gini = 0.0\nsamples = 1\nvalue = [1, 0]\nclass = brt",fillcolor = "wheat"] ;
15 -> 17 ;
18 [label="gini = 0.0\nsamples = 60\nvalue = [60, 0]\nclass = brt",fillcolor = "wheat"] ;
14 -> 18 ;
}